le_net/conv2d/kernel:0
(5, 5, 1, 6)
[[[[ 0.78992474 -0.35460776  0.48059902 -0.60045165 -0.04577324
    -0.23902014]]

  [[-0.94993675 -1.0389692   0.86039644  0.16617595  0.00422859
    -1.0383886 ]]

  [[-0.07212352 -0.09320636 -0.06044983 -0.01566988  0.9870787
    -0.46666276]]

  [[-0.69717395 -1.032083   -0.24954711  0.06760182  0.29066494
    -0.02521351]]

  [[-0.9677672   0.7406216  -0.01781706  0.8977253   0.9052036
    -0.63812566]]]


 [[[-1.0718838  -0.7250615   0.36373276  0.03628701  0.95874363
     0.5238095 ]]

  [[-0.22777158 -0.16502298 -0.01114052  0.9192467   0.97300243
     0.5999849 ]]

  [[-1.0772165  -0.7825779  -0.1172464   1.0130765   1.0179896
     0.9763069 ]]

  [[-0.7254949  -0.15534845 -1.0454843   0.34256732  1.01279
    -0.01246771]]

  [[-0.9984679   0.4657624  -0.1628855   0.21019807  0.57738674
    -0.21753146]]]


 [[[-0.86572456 -0.2404908   0.47891974  0.13902795  0.83640236
     0.08160181]]

  [[-0.08011183 -1.0463754   0.8392099   0.10923384 -0.02102837
     0.18700413]]

  [[-0.30506265 -0.5127595  -0.93254596  0.9795834   0.3813615
     0.3532267 ]]

  [[-0.37489408 -0.18097971 -1.0439492   0.55399585  1.0090368
     0.10882106]]

  [[-0.13858841  0.4249831  -0.48034126  0.18233782  0.7185349
     0.03514544]]]


 [[[ 0.11240695 -0.6476498  -0.04750416 -1.0020453  -0.03033465
     0.53385746]]

  [[-0.02414748 -0.9930854  -0.46577927 -0.16053988 -0.02079915
     0.68184316]]

  [[ 0.13062921 -0.38992718 -0.22351195 -0.10560284  0.19040093
     0.15526299]]

  [[ 0.11780386  0.2641047  -1.0265005   0.3433997   0.07731396
     0.30630344]]

  [[ 0.2980305   0.86028665 -0.72643566 -0.81121594  0.0927372
     0.10388792]]]


 [[[ 0.31309974 -0.24293575  0.8280359  -0.3748757  -0.06318711
    -0.25094113]]

  [[ 0.6949478  -0.4335349  -0.1931163  -0.9378627  -0.00193161
    -0.23604979]]

  [[ 0.04285437  0.33846632 -0.3609676  -0.42362213 -0.27680245
     0.04040493]]

  [[ 0.5609984  -0.0848937  -1.0430144  -0.02507599 -0.35724822
    -0.24004136]]

  [[ 0.7459265   0.96704125  0.07121572  0.10890103 -0.13865258
     0.00366402]]]]
le_net/conv2d/bias:0
(6,)
[ 0.03338879 -0.02532401 -0.03222458 -0.87403446 -0.9141904  -0.3495538 ]
le_net/conv2d_1/kernel:0
(5, 5, 6, 16)
[[[[ 9.89688337e-01  4.74660486e-01  1.45492088e-02 ...  9.03039649e-02
     2.45406423e-02 -3.17254439e-02]
   [-8.68652225e-01  1.40483111e-01 -8.93911496e-02 ...  1.22524314e-02
     4.68227677e-02 -9.19897437e-01]
   [-4.15751815e-01  1.55623462e-02 -3.30790468e-02 ...  4.01310772e-02
    -9.06662866e-02 -4.36825231e-02]
   [-1.65296979e-02 -2.94270813e-01  2.97703594e-01 ... -2.28298917e-01
    -5.10400049e-02 -1.16986632e-02]
   [ 7.93491662e-01 -1.68455362e-01  2.75228918e-02 ... -2.36814201e-01
    -4.22098152e-02 -6.84629828e-02]
   [-1.86589323e-02 -1.67382509e-01  6.98065042e-01 ... -5.20022064e-02
    -5.63251376e-02 -1.01833642e-02]]

  [[-1.63828552e-01 -7.98673034e-01  1.02701403e-01 ... -9.14916813e-01
     1.49581116e-02  1.64602578e-01]
   [-1.85084566e-01  1.81611720e-03  9.99213457e-02 ...  1.34452991e-03
    -7.80061960e-01  1.65030034e-03]
   [-8.50946177e-03  2.08984409e-03  6.38529360e-02 ... -3.26930493e-01
    -1.25123682e-02  2.15735078e-01]
   [-6.43800050e-02 -1.38391271e-01  6.28381446e-02 ... -1.46785825e-01
    -2.07957909e-01 -3.49227310e-04]
   [ 9.19158697e-01  1.93094071e-02  1.83408618e-01 ...  2.39511132e-01
    -4.16222326e-02  8.65884647e-02]
   [ 1.12758484e-03 -2.82143474e-01 -3.34572867e-02 ... -3.62156145e-02
     6.17620302e-03  1.08090825e-01]]

  [[ 9.26938593e-01  2.05142722e-02 -5.61320484e-01 ... -6.08288407e-01
     2.00721160e-01  2.10933462e-01]
   [-7.91728310e-03 -3.97116952e-02 -2.77861059e-01 ... -5.22483401e-02
     7.84623548e-02 -8.04056451e-02]
   [ 8.65373481e-03 -3.60887378e-01  1.58563226e-01 ... -8.17877173e-01
     8.95010456e-02  6.81502372e-02]
   [-3.40192392e-02  1.00192010e+00  1.14238389e-01 ...  6.40122071e-02
     9.70344543e-01 -9.11415368e-03]
   [ 2.57320497e-02 -1.52917877e-02  1.30204821e-03 ...  1.32638916e-01
    -5.16071096e-02 -9.84463394e-01]
   [-4.92122956e-02  2.84132864e-02 -7.42981508e-02 ...  9.85395670e-01
    -8.58073115e-01  1.77709144e-02]]

  [[-1.76138747e-02 -4.34914231e-02  9.63943303e-02 ... -2.92786628e-01
     1.28105450e-02 -5.66843033e-01]
   [-9.24526230e-02 -1.66545548e-02 -8.73533487e-01 ... -3.43767166e-01
     2.20235273e-01  9.37750995e-01]
   [ 2.37283736e-01 -5.75199611e-02  1.60778910e-01 ... -5.03442436e-02
    -6.32751286e-02  1.86829828e-02]
   [ 3.62296589e-03 -2.19672881e-02  9.69931602e-01 ...  4.48634569e-03
    -3.50991338e-01 -4.48791403e-03]
   [-3.37674399e-03 -3.35799426e-01 -6.96794614e-02 ...  2.80677408e-01
    -1.98352575e-01 -1.00570329e-01]
   [-1.45485057e-02 -3.46508354e-01 -2.17793658e-01 ...  1.21723913e-01
     9.00435075e-02  2.47594714e-02]]

  [[ 8.79512504e-02  4.00706902e-02  1.04209825e-01 ...  1.68155823e-02
     1.46085524e-03 -4.41379994e-01]
   [ 1.59762353e-02  3.44401926e-01 -8.68659437e-01 ... -8.37131441e-01
     3.23373795e-01 -4.36564058e-01]
   [-1.01794161e-01 -9.45947468e-02 -5.53127229e-02 ...  7.43882537e-01
     3.11071891e-02 -9.65814531e-01]
   [ 2.90540326e-02  6.35563955e-02  2.77759552e-01 ... -6.34812340e-02
    -1.06317764e-02  1.35678649e-02]
   [-4.18749422e-01  1.67904161e-02  4.92542982e-03 ... -2.21157912e-02
    -3.13029774e-02 -7.76509568e-02]
   [-2.96632409e-01  4.21276093e-02  2.59190705e-02 ...  9.87393260e-01
    -2.39183083e-02 -1.54762566e-01]]]


 [[[ 2.46423539e-02 -5.04836068e-02  4.04546782e-02 ...  1.00699258e+00
    -8.26259732e-01  7.93581545e-01]
   [ 9.89037275e-01  1.94991007e-01  3.63134295e-02 ... -2.29107775e-03
    -8.77205729e-01 -1.26024082e-01]
   [-3.12059447e-02 -3.93487550e-02  2.74640583e-02 ... -1.08762160e-01
    -4.06089984e-03  3.88041995e-02]
   [ 9.02735472e-01  8.20337422e-03 -8.94802064e-02 ... -1.74482055e-02
     1.71915989e-03  2.92372853e-02]
   [ 2.72846203e-02  9.96842742e-01 -3.58640179e-02 ... -2.91631371e-01
     1.50456682e-01  1.57577276e-01]
   [-7.77215838e-01  2.06060670e-02  3.44419219e-02 ...  4.78932373e-02
     1.12131529e-01  9.01567787e-02]]

  [[ 1.01461224e-01  4.43822026e-01  9.87672448e-01 ...  4.15512919e-02
     4.88709658e-02 -2.40062606e-02]
   [-5.19993193e-02 -1.92058757e-01  1.93595931e-01 ... -5.25956973e-02
     7.31369406e-02 -1.79214329e-01]
   [-6.51151016e-02  2.50873804e-01 -7.20725348e-03 ...  4.23403263e-01
    -4.33678403e-02 -2.99602412e-02]
   [-4.52420674e-03 -1.48633331e-01  4.51540835e-02 ... -3.43088955e-01
     1.00181270e+00  4.08956818e-02]
   [-9.34004784e-01 -9.43293750e-01  3.32714133e-02 ...  8.62670783e-03
    -1.07775941e-01  6.96326554e-01]
   [-4.47114743e-02 -3.58713269e-01  1.04657806e-01 ... -5.45013487e-01
    -9.65166509e-01  6.10232633e-03]]

  [[ 2.61851966e-01  1.16758078e-01  9.14161000e-03 ... -4.43727136e-01
     8.55791345e-02 -7.07343873e-03]
   [-3.72663438e-02  2.39525154e-01 -2.13811547e-01 ...  4.57787281e-03
     1.19756348e-01 -1.77997068e-01]
   [-2.31343210e-01  1.78888589e-02  3.81112874e-01 ... -1.01260519e+00
    -7.88405240e-02  2.87965268e-01]
   [-9.93038833e-01 -3.40969086e-01 -9.68437195e-01 ...  2.48722360e-02
    -2.47576237e-02 -7.39000320e-01]
   [ 2.08502263e-03 -3.80725116e-01 -4.06473018e-02 ... -9.61274624e-01
     7.01497495e-02  6.31571375e-03]
   [ 1.22550344e-02 -4.29386646e-02  3.96307185e-02 ... -1.74519122e-01
     1.29432544e-01 -4.23266031e-02]]

  [[ 2.16510464e-02  1.02273798e+00 -4.38514091e-02 ... -9.93840337e-01
     2.44670510e-02 -2.22599767e-02]
   [-9.99735296e-01 -1.18994787e-01  2.88598120e-01 ... -2.19206251e-02
     6.38242513e-02 -3.68929245e-02]
   [ 2.70530581e-01 -5.41795552e-01  5.20798385e-01 ... -3.64934027e-01
     4.56571639e-01  2.56537467e-01]
   [-6.13899648e-01  5.28398762e-03 -9.57524061e-01 ...  6.57706568e-03
    -4.39590923e-02 -1.88376069e-01]
   [-7.08713233e-02 -2.44050503e-01  2.01120097e-02 ... -5.41712880e-01
    -9.93187819e-03 -1.52702667e-02]
   [-1.42104679e-03 -3.66412669e-01 -6.85899556e-02 ...  4.18774366e-01
    -3.37141636e-03 -4.81983051e-02]]

  [[ 1.00011194e+00  5.99711612e-02 -1.05380803e-01 ... -9.99303699e-01
     1.15655810e-01  9.12511468e-01]
   [-1.09752059e-01  3.97368409e-02  1.80766687e-01 ... -6.79340884e-02
     1.13777123e-01  2.57403757e-02]
   [-9.24300253e-02 -7.86343455e-01  2.45024487e-02 ... -1.16281062e-02
     5.28482608e-02  7.01001100e-03]
   [ 4.28903056e-03  7.40399435e-02 -9.10573542e-01 ... -8.67018327e-02
    -1.02420617e-02  9.27689970e-01]
   [-3.75715464e-01 -8.12864959e-01 -8.30118917e-03 ...  2.96055526e-01
    -3.82826537e-01 -3.97394210e-01]
   [-1.95117459e-01 -1.72504112e-01 -1.89274192e-01 ...  6.48657978e-02
    -2.47740045e-01 -3.24302942e-01]]]


 [[[-7.63781443e-02  1.46943212e-01  4.07818705e-01 ... -8.35112296e-03
    -8.27145219e-01 -6.53032884e-02]
   [ 3.48670520e-02  6.38437942e-02  6.96347142e-03 ... -5.52314445e-02
    -4.86688942e-01 -9.30994749e-03]
   [ 3.28719243e-02  5.00475913e-02 -1.94032881e-02 ... -7.46712685e-02
    -3.16884190e-01 -2.36666705e-02]
   [ 1.01655781e+00 -1.71756491e-01  6.42513018e-03 ...  1.12827606e-02
    -4.57158864e-01  2.16217954e-02]
   [ 3.20186839e-02  6.16063271e-03 -9.46273983e-01 ... -2.13703915e-01
     7.33935973e-03 -6.30123960e-03]
   [ 2.77317818e-02 -2.01346159e-01 -4.15259413e-02 ...  2.10642889e-01
    -2.80604791e-02  7.24480022e-03]]

  [[-1.86042517e-01  2.08222821e-01 -5.74678220e-02 ...  2.87273198e-01
     2.46195821e-03 -2.25753322e-01]
   [ 7.25354925e-02  9.77537483e-02  1.33534104e-01 ...  9.43049937e-02
     1.37401268e-01 -4.76580799e-01]
   [-1.97459102e-01  3.32836434e-02  5.18098548e-02 ... -4.97292638e-01
    -5.13913274e-01 -1.75274253e-01]
   [ 2.86253970e-02 -2.33987980e-02  5.28281294e-02 ... -1.21815805e-03
     8.68348181e-02  6.59484789e-02]
   [-9.30339158e-01 -4.97271493e-02  3.07706427e-02 ... -6.07973397e-01
     3.76497321e-02  1.09613106e-01]
   [ 1.01312447e+00 -5.02388328e-02  9.86019522e-03 ... -1.34414788e-02
     5.61925117e-03  5.06825671e-02]]

  [[-1.40063182e-01  1.02781129e+00 -3.46428417e-02 ... -8.05737972e-02
    -7.46349335e-01  5.42032383e-02]
   [-8.07416320e-01  4.85433400e-01  1.90630913e-01 ...  9.76339281e-01
    -1.58287093e-01 -9.94672954e-01]
   [-9.81551290e-01 -4.90902625e-02  1.43543139e-01 ... -4.36183661e-01
     1.23618297e-01 -9.13270786e-02]
   [ 2.85817869e-02 -9.70794022e-01 -5.21269022e-03 ... -4.65539880e-02
    -2.90994067e-02 -1.70994755e-02]
   [ 2.11686455e-02 -4.07650590e-01 -3.41009229e-01 ...  7.04797730e-02
     2.98900623e-02 -2.41905171e-02]
   [ 2.20366925e-01 -7.37668350e-02 -1.32481635e-01 ... -5.40836826e-02
     4.52751219e-02 -6.21040538e-03]]

  [[ 4.25432390e-03  5.10276198e-01 -8.30519944e-02 ... -2.02998236e-01
     8.94526482e-01 -3.03466171e-01]
   [-4.85648870e-01  1.07685253e-01  7.68930852e-01 ...  1.49359405e-01
    -9.36663210e-01 -7.00392853e-03]
   [-8.65852177e-01 -6.28214836e-01  2.78183818e-01 ... -5.05042151e-02
     1.20735124e-01 -2.75363624e-02]
   [ 2.47699674e-02 -3.27907614e-02 -1.14962645e-01 ...  6.47090236e-03
    -1.73901290e-01 -9.76452827e-02]
   [ 2.34330390e-02 -4.63312939e-02 -1.71488479e-01 ...  1.32190078e-01
    -1.52947426e-01 -1.29339561e-01]
   [ 9.50403810e-02  3.76889221e-02 -5.07490374e-02 ...  2.54058033e-01
     8.21481824e-01 -1.52272955e-02]]

  [[ 9.78312135e-01 -4.79357243e-02  9.64616193e-04 ... -1.03671515e+00
     2.20237933e-02  2.35145018e-01]
   [-2.39925772e-01 -1.25791445e-01  1.03484941e+00 ... -1.03324807e+00
     4.05525342e-02  1.07829973e-01]
   [-2.24507991e-02 -1.37001380e-01 -5.18883392e-03 ...  5.53165078e-01
     6.18917756e-02 -6.11786656e-02]
   [ 4.35380787e-01  1.22783169e-01 -9.67744231e-01 ...  3.68148647e-02
    -2.51767218e-01 -1.29917338e-01]
   [ 1.77169934e-01  2.56167889e-01 -2.63012737e-01 ... -1.55793175e-01
    -3.24797422e-01 -9.31736678e-02]
   [ 1.02340508e+00  3.99170294e-02 -3.87488216e-01 ...  7.65059352e-01
    -9.96855319e-01 -1.01178682e+00]]]


 [[[-3.91751677e-01  2.36058578e-01  1.89888597e-01 ...  5.44110000e-01
     6.94824457e-02 -3.83218557e-01]
   [-8.06082487e-01  1.43931836e-01  2.32234985e-01 ...  7.11190626e-02
     1.02353334e+00 -1.38997599e-01]
   [-2.60424346e-01  6.30606189e-02 -2.38034934e-01 ... -9.57387537e-02
    -4.94673640e-01 -6.45025149e-02]
   [ 6.92692250e-02 -2.21153453e-01 -1.28860578e-01 ... -1.01811230e+00
     1.79201853e-03  9.26576138e-01]
   [ 9.86649692e-02 -9.86730635e-01 -1.74908992e-02 ... -3.91372405e-02
    -5.44195287e-02  1.21875107e-01]
   [ 2.73138890e-03 -3.63098457e-02  9.79284108e-01 ... -7.39782304e-02
     2.03721393e-02  8.05404186e-01]]

  [[ 7.79663980e-01  6.19476624e-02 -8.40133131e-01 ...  9.74442482e-01
     3.07981789e-01 -2.00831354e-01]
   [-2.49526262e-01  1.05936658e+00  1.49069101e-01 ...  1.15531519e-01
     3.94371033e-01  2.39960384e-02]
   [-2.02127486e-01 -2.58817434e-01  6.31645275e-03 ... -3.28882456e-01
    -1.01512182e+00 -6.01836503e-01]
   [ 4.72788334e-01 -1.46329165e-01  6.59190044e-02 ... -4.68428098e-02
     6.26633883e-01 -4.60926220e-02]
   [ 2.72257179e-01  1.94622781e-02  1.25330463e-01 ...  7.03860223e-02
     2.25836977e-01 -6.82798401e-03]
   [ 3.01886443e-03 -1.84238050e-02  7.99167622e-03 ... -1.51757449e-01
     3.61599207e-01  4.16794159e-02]]

  [[-7.10006654e-01  1.63467340e-02 -8.19266737e-02 ... -6.87535927e-02
    -1.01000392e+00 -3.72223526e-01]
   [-2.01328084e-01  2.70870864e-01 -8.18393081e-02 ... -2.66920645e-02
    -2.12249309e-01  1.88941434e-02]
   [ 7.15516061e-02  4.56219055e-02  4.94625777e-01 ... -6.53771237e-02
     1.39783159e-01 -3.62042665e-01]
   [ 5.40719405e-02  5.12198694e-02 -1.84290469e-01 ...  1.72509298e-01
     2.40861382e-02  5.97392023e-02]
   [ 2.88477372e-02 -8.76294151e-02 -2.32327253e-01 ...  6.56931475e-02
    -2.40349863e-03  9.71999347e-01]
   [ 3.10217589e-02  1.17779216e-02  4.56295535e-02 ... -8.87098014e-01
    -8.20458055e-01  9.65668797e-01]]

  [[-9.06020939e-01 -8.53940964e-01 -2.18259878e-02 ... -9.80678737e-01
     9.53608155e-02  6.94469921e-03]
   [-3.06896210e-01 -1.07909113e-01 -5.33474684e-01 ... -7.66347200e-02
     1.00675985e-01 -1.04241550e+00]
   [ 1.50977165e-01 -1.81525379e-01  1.01686990e+00 ...  1.55534387e-01
     4.92710680e-01 -4.18442577e-01]
   [ 4.32216674e-01  9.94428158e-01 -6.81198001e-01 ...  1.70206770e-01
     8.49793199e-04 -1.66305117e-02]
   [ 3.67243797e-01  3.59882489e-02 -5.06793022e-01 ...  3.34714055e-02
    -1.16511315e-01  5.82539439e-01]
   [ 1.27697095e-01  9.39304288e-03 -6.37336001e-02 ...  1.26919910e-01
     6.41928893e-03  5.53695858e-01]]

  [[-6.84901118e-01 -2.07615867e-01  1.44428626e-01 ... -5.66861928e-02
     8.94495547e-02 -9.09442127e-01]
   [-3.31744939e-01 -5.32181621e-01  4.45037365e-01 ...  3.68544281e-01
     1.85021102e-01 -8.76375973e-01]
   [-2.17730433e-01  5.96661167e-03 -9.49906349e-01 ...  5.83114803e-01
    -1.08215876e-01 -9.63210404e-01]
   [ 2.08676204e-01  5.22323418e-03 -1.00656852e-01 ... -7.01378137e-02
    -4.16571379e-01  1.29388377e-01]
   [ 4.70194966e-02  1.55227453e-01 -4.69823405e-02 ...  7.19484463e-02
    -3.41202557e-01  8.46794620e-02]
   [ 2.28364855e-01 -9.66554940e-01 -4.51732241e-02 ... -6.82692230e-02
     1.04167350e-02  1.56142294e-01]]]


 [[[ 1.73999202e-02 -6.63649617e-03 -3.09904695e-01 ...  1.96984828e-01
    -5.93947411e-01 -1.83130458e-01]
   [-1.44982442e-01  6.13330817e-03  2.63764322e-01 ... -1.28087878e-01
     2.13718697e-01 -3.25168185e-02]
   [ 1.23132942e-02  1.24645315e-01  1.32836133e-01 ...  5.62804580e-01
    -5.92707004e-03 -2.70487517e-01]
   [-5.34937233e-02 -2.10235238e-01  2.06679150e-01 ... -2.15050913e-02
     3.08884352e-01 -7.73931295e-03]
   [-7.84161538e-02 -3.94732580e-02  9.25218463e-02 ... -1.82398446e-02
     1.20017655e-01 -3.78785692e-02]
   [-2.08659396e-01  4.44909073e-02  1.85010850e-01 ...  1.57792151e-01
     6.29415736e-03  1.12328753e-01]]

  [[ 2.06895187e-01 -3.69035482e-01  2.50448938e-02 ... -6.03479184e-02
     5.88756263e-01 -9.45137069e-02]
   [-6.63483366e-02  2.14488342e-01  1.06005862e-01 ... -3.41392636e-01
    -3.00619230e-02 -3.38409573e-01]
   [ 2.53764659e-01 -1.07154511e-01  1.45612955e-01 ... -3.66435237e-02
     2.11728275e-01 -1.28282875e-01]
   [-3.38575393e-02  6.89020604e-02  5.85749485e-02 ...  2.94025633e-02
     5.41165061e-02 -1.97770242e-02]
   [-2.70929515e-01  1.80399530e-02  2.92647213e-01 ...  1.18012317e-02
     4.16557007e-02  9.82026085e-02]
   [-9.91731286e-01 -1.39972374e-01  2.83873789e-02 ... -1.78698543e-02
     5.60991131e-02  3.91546302e-02]]

  [[-8.68977904e-01  1.27980784e-01 -8.52231830e-02 ... -1.02611840e+00
    -5.22522777e-02 -6.71809092e-02]
   [ 2.70993579e-02 -2.21697260e-02 -2.34822571e-01 ...  1.50755256e-01
    -3.97742450e-01 -7.19734788e-01]
   [ 8.52767527e-01 -9.68634248e-01  2.26741329e-01 ...  8.10644209e-01
     6.57719254e-01 -3.58713597e-01]
   [-1.11613393e-01  8.43248844e-01 -2.97857583e-01 ... -5.07159624e-03
     5.92117347e-02  3.46956879e-01]
   [-4.39805761e-02  1.08205620e-03 -9.50493753e-01 ...  9.90817189e-01
     3.64482492e-01  9.14956331e-01]
   [-5.32226674e-02 -1.57908514e-01 -5.93675554e-01 ... -1.47000298e-01
     1.08366283e-02  2.13899478e-01]]

  [[-1.23616196e-01  1.48339467e-02 -9.23108160e-02 ... -1.61977217e-01
     3.63673009e-02 -2.95673579e-01]
   [-1.68026835e-02 -3.64759058e-01  6.70118332e-01 ...  8.36542964e-01
     4.87532735e-01  6.10023618e-01]
   [ 9.56419289e-01 -6.97627425e-01  4.99125607e-02 ...  1.52731284e-01
     1.00618601e+00  1.70427456e-01]
   [-1.91796124e-01  9.69807506e-01 -8.84100273e-02 ... -2.69855727e-02
    -4.65974838e-01  4.10892159e-01]
   [-8.77137661e-01  7.76785193e-03 -4.32018816e-01 ... -1.45127075e-02
    -9.77712750e-01  2.56067991e-01]
   [-4.57606725e-02  2.80354638e-02 -9.96340394e-01 ... -1.21883914e-01
     4.88977790e-01  3.23442638e-01]]

  [[-7.69467801e-02 -2.36261562e-01 -1.15402699e-01 ... -9.31532562e-01
     1.60852724e-04 -1.90168127e-01]
   [ 1.92108639e-02 -3.68988901e-01  6.61404014e-01 ... -9.45907533e-01
     1.00410116e+00 -8.14061239e-02]
   [-2.38929883e-01  7.05965757e-02  7.94727132e-02 ...  6.12727165e-01
    -3.14584166e-01  1.25859166e-03]
   [ 7.96756074e-02  6.27527758e-03  7.44535937e-04 ... -2.62461662e-01
     1.70458164e-02  2.36117989e-01]
   [ 2.65364479e-02  5.85744977e-02 -2.54440606e-02 ... -3.65532488e-02
    -9.72543657e-01 -7.68504571e-03]
   [-1.96354777e-01  2.85365749e-02 -1.39116004e-01 ... -5.31361364e-02
    -9.32403743e-01  1.36172026e-01]]]]
le_net/conv2d_1/bias:0
(16,)
[-0.13014047  0.02029691  0.03830473 -0.00844214 -0.10690991 -0.07329179
 -0.07538743  1.010665   -0.56274265 -0.10966986 -0.0430503  -0.505611
  0.00171254 -0.10145718  0.00454446 -0.07585748]
le_net/dense/kernel:0
(256, 120)
[[-0.08301902 -0.09800693  0.09922864 ... -0.88028264 -0.9727433
  -0.95179534]
 [ 0.6353795  -0.10702101 -0.25419888 ... -0.02116853  0.2072074
   0.00922318]
 [ 0.01067054  0.96352863  0.02055612 ...  0.09645074  0.42346147
  -0.0369799 ]
 ...
 [ 0.5303634   0.027469   -0.27336833 ... -0.0039185   0.01227054
  -0.05595306]
 [-0.015416    0.31734172 -0.20021527 ... -0.07928746 -0.05651774
  -0.18613465]
 [-0.11527253 -0.78570515 -0.06082201 ...  0.06357526  0.03816172
   0.03693347]]
le_net/dense/bias:0
(120,)
[-2.94182524e-02  2.31890101e-02 -1.85834393e-01 -9.50282633e-01
  1.00104284e+00 -5.28921932e-02 -1.74587876e-01 -1.03645185e-02
  2.72843149e-02  5.70380725e-02 -3.35161318e-03 -3.56174111e-02
  1.46131068e-02  6.91109598e-01 -2.65722662e-01 -4.80277836e-03
  5.61720040e-03 -4.23540361e-03 -4.58532758e-02 -9.54675436e-01
  1.15226740e-02  2.09366940e-02  2.60953158e-02 -4.54194993e-02
 -9.05522779e-02 -1.73537415e-02 -9.91340816e-01  2.75194496e-02
 -4.74004447e-03  1.00627697e+00 -3.98011841e-02 -6.49581909e-01
 -8.09346363e-02  2.04065070e-02 -2.70258132e-02  1.39163015e-02
 -8.41215402e-02  9.92853940e-03  5.51627241e-02 -1.02992691e-01
  9.53814805e-01  5.14694750e-02 -1.59694180e-02 -8.09055790e-02
  1.15279406e-01 -4.28408645e-02 -3.52708250e-01  1.79186501e-02
 -7.22161634e-03 -4.38392609e-01 -1.98855065e-02  9.56484139e-01
  9.03289914e-02 -4.42569740e-02  4.93761674e-02  1.64857898e-02
 -6.61364123e-02 -6.39244616e-02 -1.07445419e-01  1.25774452e-02
  2.70055537e-03 -3.00208926e-02 -5.40074259e-02 -6.06846027e-02
 -2.00255250e-04  6.89879954e-02  1.45605635e-02 -8.19811523e-02
 -7.14023635e-02 -3.29057649e-02  2.03316938e-02 -8.30311999e-02
 -1.00619411e+00 -1.20651677e-01  1.98450368e-02 -2.17164196e-02
 -4.01875563e-02  1.47984341e-01 -9.35813859e-02  4.59923558e-02
 -3.10777705e-02  5.68558741e-03 -5.65208644e-02 -3.44462357e-02
  1.24422759e-01 -2.01186985e-02 -1.66777689e-02 -9.67637897e-01
 -1.29928077e-02 -6.38486922e-01 -7.17777535e-02  6.33341912e-03
  1.49246901e-01 -2.54775141e-03 -9.26221669e-01  9.81465518e-01
 -7.97893554e-02 -9.88573551e-01  1.05740286e-01 -1.16264723e-01
 -9.94846165e-01 -1.11657940e-02 -1.38322413e-01  9.51711535e-01
  1.02391548e-01  3.65078002e-02 -2.28469577e-02 -1.01030290e+00
  4.68936563e-02 -9.86690968e-02 -1.30360480e-02 -2.59971730e-02
  1.11408450e-01 -9.51960385e-01  2.63831448e-02 -5.70693985e-03
  2.98103392e-02 -9.88394380e-01  1.27210096e-02 -1.96889671e-03]
le_net/dense_1/kernel:0
(120, 84)
[[ 0.00852144 -0.9871932   0.20801716 ... -0.06258532  0.75399494
   0.19465274]
 [ 0.0178381  -0.45760018  0.02465262 ...  0.0379936  -0.05267709
  -0.01487259]
 [ 0.08005816 -0.14141646  0.01393376 ...  0.8218532  -0.06768082
   0.0227901 ]
 ...
 [-0.16919044 -0.63032335 -0.01020787 ...  0.308959   -0.9976965
   0.11813441]
 [-0.46447304 -0.26775247 -0.00660071 ...  0.21038419  0.04424386
   0.01005865]
 [-0.21863821  0.15733719 -0.50968766 ...  0.01108581 -1.0190781
   0.92282146]]
le_net/dense_1/bias:0
(84,)
[ 9.7667825e-01  2.1841021e-02 -4.9026314e-02 -2.1221602e-02
  9.8988014e-01 -1.6866762e-02  1.9704441e-02  4.8805855e-02
  3.7311394e-02 -9.8027545e-01 -1.0400451e-02  2.3423767e-02
  3.5752358e-03 -1.8769009e-02  9.1769323e-03 -1.7501185e-02
  3.6702111e-02  1.0473079e-01 -9.3345153e-01  1.5528620e-02
 -1.0034595e+00 -7.4885532e-02 -5.6174584e-03  1.0120771e+00
 -3.2010261e-02  9.3877250e-01  7.5512543e-02 -2.3306501e-03
 -8.3094835e-03  4.7441558e-03 -1.8470237e-02 -5.0207410e-02
 -1.2093177e-01  4.3811116e-02  9.3450822e-02  4.1870762e-02
  1.7474251e-02 -3.6331926e-02  2.7941836e-02  6.2352501e-02
 -9.4650888e-01  5.3648423e-02  2.6335763e-02 -1.5943719e-02
  6.7627081e-03  2.4331769e-02 -6.1657876e-01  2.0910315e-02
 -6.7873228e-01  8.0516569e-02 -5.8922338e-01  1.6923157e-02
 -8.3590098e-02  9.3049109e-01 -1.7116506e-02  3.2027483e-02
 -6.7275838e-04 -3.6184359e-02 -9.2669290e-01 -8.0215096e-02
  1.7663145e-02 -1.1531717e-02 -8.9965761e-01  1.5490315e-02
  2.8231137e-02  4.6777684e-02  9.8213428e-01  9.8283654e-01
  2.3963364e-02  3.8122199e-02 -2.4508836e-02  2.0866428e-02
  4.2281352e-02  1.1815014e-01  8.3155306e-03 -8.7962739e-02
  9.3006939e-01  3.1829625e-02  9.8850095e-01  2.1104869e-02
 -7.5462423e-02 -3.0056218e-02 -2.0930024e-02  1.5583524e-02]
le_net/dense_2/kernel:0
(84, 10)
[[ 5.76592386e-01  2.77722199e-02 -8.74799371e-01  9.94950950e-01
   3.91831733e-02 -1.32984277e-02 -3.51944491e-02  8.35105851e-02
  -9.90065187e-02  6.22042477e-01]
 [ 2.86929488e-01 -7.55496556e-04  6.62940681e-01 -1.90257221e-01
  -4.29153502e-01  1.97942033e-01 -1.00949681e+00  9.61011350e-01
  -1.73147783e-01 -2.98669506e-02]
 [ 9.24075842e-02 -1.01512742e+00 -1.03161180e+00  1.69582125e-02
  -6.59165204e-01 -7.47978175e-03 -1.84021965e-02  1.01775336e+00
   6.68790936e-02 -9.26007852e-02]
 [ 2.23176047e-01  7.40523785e-02  5.73987722e-01 -1.01801920e+00
   1.75136968e-01 -3.83361317e-02  4.98945564e-01 -5.45935407e-02
  -5.21715917e-02 -3.47997516e-01]
 [ 1.52731597e-01 -2.58804578e-03 -5.09221315e-01  3.61738890e-01
   3.49276997e-02 -7.52166333e-03  5.47686160e-01 -1.03403926e+00
   4.73178208e-01  1.91642046e-01]
 [-5.00244573e-02 -9.68921542e-01  6.03782237e-01  1.01219451e+00
   6.14097714e-01 -1.85199156e-02  2.23274857e-01 -8.48797150e-03
   1.01044965e+00 -5.91485262e-01]
 [ 3.99339609e-02 -1.01767652e-01  4.56144363e-02  9.97407854e-01
  -8.78261447e-01  4.62306058e-03  7.43582845e-02  3.25087681e-02
   1.51932165e-01 -3.31770271e-01]
 [ 6.11767769e-02  8.30133334e-02  2.94704759e-03  3.58076729e-02
   9.84847397e-02 -1.07285157e-01  7.89212167e-01  1.97232336e-01
   8.00688341e-02 -1.03759491e+00]
 [-1.03865421e+00  1.01963758e+00  4.17265356e-01  1.12323493e-01
  -1.03361821e+00 -4.35286134e-01 -5.36685824e-01 -4.80199903e-02
   4.54100192e-01  7.22682774e-02]
 [ 2.27515161e-01  2.35251486e-01 -1.03809357e+00 -1.19262651e-01
   4.23985422e-02  3.38958465e-02  1.01507950e+00  9.79506969e-01
  -5.17087579e-02  9.87250030e-01]
 [-2.65170187e-01  1.02614164e+00 -1.00383008e+00  3.30428593e-02
   1.01141620e+00 -6.23625591e-02 -6.93345845e-01 -1.01148939e+00
  -1.89946607e-01 -9.46952522e-01]
 [-3.41866985e-02 -9.98698831e-01  3.05417418e-01  9.31115806e-01
   6.27879202e-01 -6.14441335e-02 -7.06520602e-02  9.82178032e-01
  -5.96009374e-01  2.31312498e-01]
 [-4.71630692e-01  1.01773822e+00 -2.75974363e-01 -5.08159995e-01
   1.37758970e-01 -7.34946907e-01  4.23103422e-01 -1.63782045e-01
   5.93088865e-01 -3.05260181e-01]
 [ 8.69766027e-02  7.73489326e-02  6.95417285e-01 -8.05675909e-02
  -2.22727880e-01 -2.57151306e-01  1.25625893e-01 -4.70103830e-01
  -4.67698246e-01 -1.91160873e-01]
 [-9.67392981e-01 -2.66908675e-01 -9.64941323e-01 -6.96574226e-02
   1.13287285e-01  2.77966887e-01  1.01727164e+00 -1.94269717e-02
   6.32477179e-02  1.52726658e-03]
 [ 3.93904485e-02  2.95518078e-02 -1.62622016e-02 -6.67655110e-01
  -9.08945501e-01  9.96195555e-01 -7.19693899e-02 -9.61356342e-01
   2.98925042e-01 -6.98473975e-02]
 [ 7.09193289e-01  7.26915896e-01 -3.21017206e-02  5.57508230e-01
  -5.98684186e-03 -3.92936356e-02 -7.06261098e-01  1.58921462e-02
  -1.16044283e-02 -9.10307109e-01]
 [-5.07835001e-02 -1.64313510e-01 -5.62310100e-01 -4.50622678e-01
   1.06566615e-01  9.48517919e-02 -6.96785972e-02  7.80152828e-02
   3.02724950e-02  5.28973676e-02]
 [-1.03540075e+00 -5.86499989e-01 -1.03134167e+00 -1.03973055e+00
   3.45746815e-01  6.26884639e-01  4.80042994e-02  9.90940571e-01
   3.87571938e-02 -1.74024716e-01]
 [ 1.25578761e-01 -6.86459899e-01 -9.43168774e-02 -1.02933431e+00
   1.01186085e+00  3.39233994e-01 -5.34159541e-02  2.52116889e-01
  -1.99170709e-01  9.99233127e-01]
 [-2.41552182e-02 -8.56557846e-01  3.70534986e-01  5.64513862e-01
  -2.58415192e-01 -1.17856241e-03  3.98174971e-02 -9.96702313e-01
   6.09058797e-01 -7.93161869e-01]
 [-3.30785401e-02 -4.45621163e-01  4.71798405e-02  1.01656055e+00
  -5.45638025e-01 -5.40779084e-02 -8.56388628e-01 -1.76381558e-01
  -5.59916114e-03  5.90867758e-01]
 [-4.45347801e-02 -1.89588130e-01  1.88327938e-01  1.16710894e-01
   4.41997647e-01 -1.04277217e+00 -7.66412318e-01  7.23744333e-02
   3.99296358e-02  2.97664225e-01]
 [ 9.52761471e-01  1.15865506e-01  1.00377011e+00 -1.69230595e-01
   2.97558039e-01 -4.06323880e-01 -4.50281262e-01  1.99324638e-02
   1.03228343e+00  2.65785098e-01]
 [ 3.19195017e-02 -1.29910812e-01  2.57314980e-01 -9.41292644e-01
  -7.67585710e-02 -1.09650820e-01 -1.00761878e+00 -3.63082401e-02
   5.99042714e-01  1.06817581e-01]
 [ 3.87455434e-01  5.66238351e-02  7.60189444e-02  1.20042294e-01
   1.38246734e-02 -7.28898406e-01 -1.02573156e+00 -1.69663116e-01
   2.82496959e-01  1.00004327e+00]
 [-1.02511156e+00  1.00515294e+00  1.89516068e-01  5.78626096e-02
  -1.15000136e-01  4.26883131e-01 -3.28129500e-01  3.02391518e-02
  -5.05431555e-02 -9.68081355e-01]
 [-1.85736716e-01 -5.38490832e-01  3.30590457e-01  7.53354490e-01
  -2.14563273e-02 -5.63708916e-02  3.97268757e-02  6.23674272e-03
   2.02782542e-01  3.89176905e-01]
 [-4.23152260e-02 -4.79344279e-02 -1.40242472e-01  7.59367198e-02
   2.58670330e-01  8.15616846e-01  2.93591142e-01 -2.67309544e-04
  -3.23868960e-01 -1.22407682e-01]
 [-1.83611214e-01 -1.74121782e-01 -1.01436973e+00  4.08810258e-01
   1.41607761e-01  7.16543272e-02  9.80159491e-02  1.21002384e-02
  -9.42331970e-01  4.60251212e-01]
 [-1.15853164e-03 -9.98624921e-01  3.20304215e-01  1.66171089e-01
   9.18697789e-02  1.59707651e-01 -1.01215148e+00 -6.77197892e-03
  -8.92945945e-01  1.13436840e-02]
 [ 2.11814776e-01  2.72942986e-02  6.81285486e-02 -5.77586830e-01
   1.91634104e-01 -1.04811382e+00  2.06960395e-01 -4.37389374e-01
  -7.15120658e-02 -3.29378783e-03]
 [-9.22672898e-02  1.03630506e-01  6.81664869e-02  3.34447652e-01
   9.58330750e-01 -1.34927586e-01 -2.20687300e-01  1.66636273e-01
  -1.03275549e+00  2.57488906e-01]
 [ 5.56339562e-01 -1.02313161e+00 -2.86366910e-01 -7.54415914e-02
   4.38480414e-02  7.16378912e-02  1.72255620e-01 -3.47401083e-01
   3.46576303e-01  9.98420298e-01]
 [ 1.22960314e-01 -1.01875389e+00 -2.59211976e-02  3.21338952e-01
   2.02246979e-01  9.65854805e-03  2.64831692e-01 -1.05055618e+00
   2.66337305e-01  1.60272559e-03]
 [-1.03903210e+00  4.71736580e-01 -2.40665317e-01  6.43617332e-01
   6.88027730e-03  2.15034559e-03 -1.48661464e-01 -3.04214239e-01
  -2.11162269e-02  5.27198374e-01]
 [ 6.60441756e-01  1.02375996e+00  5.57344079e-01 -4.10007834e-01
   1.00026226e+00 -3.29925895e-01  5.55301547e-01 -1.15360111e-01
  -3.39393280e-02  2.32786804e-01]
 [ 3.88783775e-02  4.39657010e-02 -3.06852877e-01 -3.14354710e-02
   4.98685688e-02 -4.24917907e-01 -5.07624209e-01  3.55438381e-01
   3.48859787e-01  3.54809672e-01]
 [ 3.05356115e-01  8.81076232e-02  2.45396018e-01 -7.99326658e-01
   3.28637473e-02 -2.81115830e-01 -2.15265334e-01  6.07100427e-01
  -1.00521886e+00 -3.29923518e-02]
 [-5.54661930e-01 -5.27906939e-02  4.89029475e-02 -7.30084717e-01
   1.25361711e-01  1.03901215e-01  2.45561406e-01  7.91725761e-04
  -4.91607100e-01 -2.15818912e-01]
 [ 6.14141762e-01 -7.29822278e-01  1.33165851e-01  4.37802337e-02
  -1.01288414e+00 -7.91816175e-01  8.89182866e-01 -8.44624713e-02
  -2.32957765e-01 -1.01166499e+00]
 [ 4.03030477e-02 -2.39893109e-01 -1.20589323e-02  6.88072741e-02
  -4.44596738e-01  1.15087532e-01  2.18492627e-01  5.51291227e-01
   4.39248562e-01 -1.86801270e-01]
 [ 6.50345504e-01  1.01103485e+00  5.22333860e-01  2.52082735e-01
  -8.55691209e-02  5.56282960e-02  1.47878125e-01 -1.81532353e-01
  -6.30467013e-02 -3.42702776e-01]
 [ 1.32604018e-01 -3.92330810e-02  9.16319013e-01 -1.01317883e+00
   7.33171821e-01 -4.90453303e-01  7.79929578e-01 -4.06641334e-01
   4.85786684e-02 -2.79993385e-01]
 [-1.59607586e-02 -1.01657987e+00  1.72323301e-01 -3.94761145e-01
   9.57897399e-03  3.24586987e-01  2.39540726e-01  9.77422655e-01
   1.39839172e-01  1.06542826e-01]
 [-3.59183520e-01  3.51061225e-01  1.16439745e-01 -1.86874494e-01
   4.68535125e-02 -1.03466129e+00 -1.03104568e+00  9.62544680e-01
   2.97801971e-01  2.03569293e-01]
 [-4.42907780e-01 -1.01893507e-01 -7.25049153e-02  1.62259061e-02
  -1.02378595e+00  3.88057560e-01 -1.16216810e-02  1.00870550e+00
   7.68059269e-02  6.68481350e-01]
 [ 4.36764769e-02 -7.62384385e-02  3.35155547e-01 -1.89281866e-01
  -1.98610350e-01  2.67847151e-01 -3.27662647e-01  1.13253020e-01
  -8.36008370e-01 -8.98332357e-01]
 [ 1.01076746e+00  1.01549337e-02 -1.03411162e+00  1.30885229e-01
   2.81924978e-02 -3.74789983e-02  7.63968751e-02 -3.80859852e-01
  -1.01815534e+00  1.46023244e-01]
 [-1.04097831e+00  1.26784472e-02 -3.00761312e-01 -8.37158501e-01
   4.94598597e-02  2.38492861e-02  2.98842806e-02 -2.34446097e-02
   1.01947010e+00 -7.71448016e-01]
 [-6.91186011e-01 -7.20703304e-01 -1.98245704e-01  4.66948114e-02
  -1.73770934e-01  3.30876634e-02 -9.49040473e-01  3.23489937e-03
   1.80084519e-02 -1.74418581e-03]
 [ 4.92506213e-02 -2.38741674e-02 -4.50373918e-01  2.86932230e-01
  -3.78179669e-01 -1.28665477e-01 -1.22046188e-01 -6.51221573e-01
  -1.75442621e-02 -5.35739250e-02]
 [-7.31037676e-01  5.35978973e-01 -1.00388622e+00  1.24302417e-01
   4.93795812e-01 -2.01747507e-01  1.50043815e-01  2.10623533e-01
  -1.79486722e-01  1.49125215e-02]
 [-2.94931382e-02  1.01561356e+00 -1.80105656e-01 -2.66375154e-01
  -2.44406401e-03  1.66332394e-01 -4.56599891e-02  1.44586757e-01
   3.74842845e-02 -1.52539238e-01]
 [-2.34366611e-01 -3.15159440e-01 -7.12722959e-03 -5.69605641e-02
  -1.79365113e-01  1.01438141e+00 -7.37263411e-02  3.96598637e-01
   2.84854649e-03  1.03815570e-01]
 [ 3.79141510e-01  1.68415725e-01 -8.43332261e-02 -5.51113069e-01
   1.98078379e-01  6.51236400e-02 -2.50029385e-01  2.84887969e-01
  -3.14423412e-01  5.01192287e-02]
 [ 7.83184990e-02  2.23738495e-02  3.64021957e-02 -4.63851094e-02
   1.02875948e+00 -8.74784231e-01  4.42929119e-02 -7.36827403e-02
  -1.01453853e+00 -8.66250098e-02]
 [-6.19473169e-03  1.00198664e-01 -3.83208334e-01  2.46508360e-01
   2.24133298e-01  2.69424230e-01  5.84406294e-02 -3.03255096e-02
   5.32560647e-01 -6.65095355e-03]
 [ 9.92400348e-02 -3.28956954e-02  1.38735324e-02 -2.98318118e-01
  -8.01222801e-01 -4.68331538e-02 -6.37724400e-02  9.60968360e-02
   1.84951395e-01 -4.14952517e-01]
 [-3.05138528e-01  5.65252066e-01 -7.83603787e-01  2.28914559e-01
   5.09017050e-01  5.02563640e-02 -5.29299259e-01  4.90125060e-01
  -1.66514471e-01  9.87489462e-01]
 [-7.04234466e-02  3.74160171e-01  5.56123912e-01 -1.04726493e+00
   5.03865331e-02 -1.95951864e-01  3.43297631e-01  3.29616547e-01
  -3.03483218e-01 -6.03917003e-01]
 [-8.27712417e-02 -3.83555368e-02  4.41084474e-01 -4.12411205e-02
  -5.93721807e-01  1.15387321e-01 -8.70359778e-01  1.81905091e-01
   1.89300150e-01  3.21968853e-01]
 [-1.66621417e-01  3.68158758e-01  1.34315029e-01  1.00131059e+00
   6.36288404e-01  2.39150766e-02 -4.39981729e-01  9.09167707e-01
  -9.08428907e-01 -2.78809279e-01]
 [-1.06745958e+00  1.75105900e-01  5.76766551e-01  1.39576465e-01
  -2.25217864e-01 -1.30467251e-01  3.91948707e-02  3.29974443e-02
  -1.46002695e-01 -7.48848855e-01]
 [ 4.23129424e-02 -1.04061055e+00 -2.52049565e-01  6.33670390e-01
   1.19110450e-01 -2.51728622e-03  6.92493796e-01 -7.73107827e-01
   8.74484107e-02  1.03943132e-01]
 [-2.74369031e-01 -9.62312937e-01  3.25895965e-01  7.03876093e-02
   3.82762216e-02  2.73113251e-01  6.71756044e-02 -5.36577404e-01
  -3.13931972e-01  4.21293750e-02]
 [-6.15664423e-01  1.56904355e-01 -7.16237426e-01  2.45218158e-01
   3.41390848e-01 -1.00111187e+00 -2.66949814e-02  2.72006094e-02
  -3.49791974e-01  1.25040814e-01]
 [ 1.66513603e-02  8.06821406e-01  1.06152296e-01 -4.66125906e-01
   1.86745584e-01  3.67378056e-01 -2.12357774e-01 -1.03074896e+00
  -3.99147198e-02 -1.35534659e-01]
 [-3.77680629e-01 -1.00852884e-02  1.27069816e-01  4.49438542e-02
  -3.22079092e-01  1.73609585e-01  3.16962525e-02  3.68007839e-01
   2.28096899e-02 -7.16955245e-01]
 [-1.04184341e+00  9.70631912e-02 -5.45428991e-01  2.52052434e-02
  -6.24995112e-01 -1.11550186e-02 -4.20201510e-01  1.01365650e+00
   4.35093999e-01  6.15544140e-01]
 [ 1.00322318e+00 -5.31748354e-01  2.24485025e-01  1.10747889e-01
  -9.63951647e-01  5.77484250e-01 -5.42827277e-03 -1.51380733e-01
   6.53556734e-02 -1.80325340e-02]
 [ 7.24406391e-02 -1.34703055e-01  2.20306873e-01 -5.17383814e-01
   1.84480667e-01 -7.96648085e-01  1.02418029e+00  2.06480876e-01
   8.94806460e-02 -5.00411749e-01]
 [ 2.15235483e-02  2.29416594e-01  8.48749056e-02  1.91588193e-01
  -6.72165751e-01 -1.79166093e-01 -7.76375651e-01 -2.19682857e-01
   1.66283101e-02 -1.04270208e+00]
 [ 4.08818245e-01 -1.00267565e+00  1.01458025e+00  3.04705441e-01
   1.00012994e+00  1.65196493e-01 -9.86814141e-01  1.36771649e-01
  -1.45496204e-01  3.51505965e-01]
 [-3.52398962e-01  1.41096205e-01  8.80550146e-02 -7.12486148e-01
   7.08430111e-02 -1.01615238e+00  1.41262725e-01 -1.61130816e-01
   2.77314872e-01  7.31972419e-03]
 [ 1.02325094e+00 -5.84696457e-02 -1.42609760e-01 -5.89454845e-02
  -2.75411993e-01  9.93292928e-01  2.00939123e-02 -1.70422103e-02
   3.51408780e-01 -3.03570211e-01]
 [ 1.49413824e-01 -6.58082888e-02 -1.02609885e+00 -1.82611167e-01
   6.06490485e-03  1.00267386e+00  8.06227803e-01 -2.77041793e-01
  -2.07533121e-01  9.96116400e-01]
 [ 5.72693050e-01  9.96768594e-01  4.15672451e-01  2.46275123e-03
  -1.65760100e-01  9.85926867e-01 -7.23929286e-01  3.36889783e-03
   2.99768955e-01  9.97955799e-01]
 [-1.02408087e+00  3.22640017e-02 -5.59525341e-02  6.00508392e-01
  -2.95447677e-01  1.11939065e-01  2.60483801e-01 -9.23137426e-01
   5.07718086e-01 -7.01940060e-01]
 [-5.77529669e-01 -6.65646017e-01  1.01194434e-01  1.76092163e-01
  -8.85030746e-01  9.93382394e-01 -2.61063948e-02 -4.06229019e-01
   6.16446137e-02  9.09141600e-02]
 [ 8.19755420e-02  5.08252718e-02  3.12368236e-02 -1.73166394e-01
  -2.47605771e-01 -4.49008524e-01  5.11168361e-01 -4.93048072e-01
   1.08891368e-01 -2.18961537e-01]
 [ 1.34505764e-01 -2.33496651e-01 -4.11959402e-02 -8.17388669e-02
   3.87976736e-01  5.78621067e-02  9.78835821e-02 -3.57781529e-01
   1.02092278e+00 -2.81706899e-01]
 [ 2.40030870e-01  1.89584151e-01  2.45932981e-01  8.01114067e-02
  -1.04379809e+00  3.70278448e-01  1.87243685e-01 -9.09868538e-01
  -6.95000052e-01 -6.31013811e-01]
 [ 9.01354790e-01 -8.26790407e-02  3.97463739e-02 -4.15397793e-01
   1.67475175e-02  2.15830535e-01  4.17663641e-02 -1.02786255e+00
  -1.03401983e+00  4.68097061e-01]]
le_net/dense_2/bias:0
(10,)
[ 0.04283312 -0.09266808  0.00156752  0.01771639  0.0346323  -0.01551136
  0.01662747 -0.01383032  0.20617473 -0.06673767]
