le_net/conv2d/kernel:0
(5, 5, 1, 6)
[[[[-4.25636172e-01 -6.12405241e-01  2.46448815e-01  5.98877668e-01
     5.67895532e-01 -3.29774022e-01]]

  [[-1.08907330e+00 -2.80223489e-01  3.61485809e-01  5.27347326e-01
     4.78594273e-01  6.79138228e-02]]

  [[-7.34262347e-01 -3.82834345e-01  2.26544410e-01  4.94013540e-02
     4.23832446e-01  4.94995527e-02]]

  [[-4.56269443e-01 -1.35328114e-01 -3.99591148e-01 -9.78381455e-01
     4.94268596e-01  1.86683372e-01]]

  [[-7.09496796e-01 -3.67132872e-01 -8.57404411e-01 -1.29623139e+00
     3.98664892e-01 -1.48141831e-01]]]


 [[[-7.21158028e-01 -2.37982780e-01  2.89252520e-01  5.67589700e-01
     4.15940762e-01  4.82274950e-01]]

  [[-6.42222345e-01  8.29448178e-02  7.02790320e-01  6.65468395e-01
     6.99950814e-01  4.62077320e-01]]

  [[-3.59668702e-01  2.32112125e-01  5.87640584e-01  2.50093997e-01
     5.25835097e-01  9.88839030e-01]]

  [[ 8.69992077e-02  5.73549449e-01  5.98213971e-01 -2.93157697e-01
     7.37692237e-01  6.54333591e-01]]

  [[-2.34754503e-01  3.98058772e-01 -6.56613484e-02 -5.97212136e-01
     7.67806292e-01  3.88180047e-01]]]


 [[[ 6.01338856e-02  2.36733869e-01  1.81917503e-01  3.98687840e-01
     6.39692843e-01  5.88512719e-01]]

  [[ 1.84097379e-01  7.54685640e-01  8.71199131e-01  4.24303085e-01
     5.21881759e-01  7.82341301e-01]]

  [[ 1.81494892e-01  6.10134482e-01  7.00574875e-01  3.74677509e-01
    -1.41323060e-01  9.82657373e-01]]

  [[ 7.58813679e-01  8.36916983e-01  6.78861022e-01 -2.48970047e-01
    -5.56785576e-02  4.71750796e-01]]

  [[ 1.95930794e-01  5.49992919e-01  4.77480948e-01 -2.07529008e-01
     2.58501232e-01  6.44654989e-01]]]


 [[[ 4.28493083e-01 -8.90864655e-02  3.40370119e-01  2.19461977e-01
    -8.67186929e-04  7.38188997e-02]]

  [[ 7.37083018e-01  2.50698000e-01  4.65151340e-01  3.36498380e-01
    -2.66681522e-01  2.71069497e-01]]

  [[ 6.37122035e-01  2.77662933e-01  1.08298592e-01  1.36554524e-01
    -8.50281239e-01  3.22128087e-01]]

  [[ 8.71142745e-01  5.39103568e-01 -1.63335368e-01 -1.69028603e-02
    -7.54155278e-01  2.70788968e-01]]

  [[ 7.69967973e-01  5.35774946e-01  2.02530041e-01 -3.98792237e-01
    -8.74574482e-01  2.16799259e-01]]]


 [[[ 2.32393533e-01 -3.41795594e-01 -1.57409295e-01 -3.76502611e-02
    -8.09725463e-01 -3.36131215e-01]]

  [[ 4.51314360e-01 -5.35418272e-01 -1.87455431e-01  2.60969073e-01
    -1.06221282e+00 -8.08368102e-02]]

  [[ 1.75870195e-01 -4.77924615e-01 -7.27744460e-01 -2.66978830e-01
    -1.14979100e+00 -2.19100222e-01]]

  [[ 3.70852560e-01 -1.92743436e-01 -6.97978020e-01 -1.96133345e-01
    -9.91045058e-01 -1.32557690e-01]]

  [[ 4.78600681e-01  1.04864225e-01 -7.19672143e-01 -3.04888248e-01
    -8.34834039e-01 -7.64037371e-02]]]]
le_net/conv2d/bias:0
(6,)
[-0.89459544 -0.9651646  -0.9751535  -0.8498633  -0.6617298  -0.92320615]
le_net/conv2d_1/kernel:0
(5, 5, 6, 16)
[[[[ 3.29254121e-02 -2.37678420e-02  3.55420768e-01 ...  1.86709493e-01
    -1.26459271e-01 -1.32617250e-01]
   [-3.80468331e-02  3.12621077e-03  2.58912712e-01 ...  2.24686623e-01
    -7.91178346e-02  1.43656954e-01]
   [ 3.44140679e-02  2.88938224e-01 -6.85872212e-02 ...  1.94632590e-01
    -2.23942965e-01  4.59173275e-03]
   [ 5.86535521e-02  2.25618601e-01 -1.07759163e-01 ...  2.11964160e-01
    -1.86288312e-01 -3.06068897e-01]
   [-6.95422590e-02  4.61976320e-01 -4.06184345e-01 ... -4.59295250e-02
    -9.24304277e-02  3.01405877e-01]
   [-1.50217088e-02  2.08558187e-01 -8.52509029e-03 ...  2.47085333e-01
    -5.56535795e-02  7.12453127e-02]]

  [[-4.69598435e-02 -1.21019691e-01  2.11186871e-01 ...  2.95355171e-01
    -1.57939512e-02  7.07920566e-02]
   [-1.35161027e-01  2.32834220e-01  3.04974709e-02 ...  2.92387068e-01
     1.03785913e-03  7.85781443e-02]
   [ 3.06736808e-02  1.04368299e-01 -6.67241663e-02 ...  2.20418394e-01
     5.87000102e-02  2.24150848e-02]
   [-2.11470183e-02  2.10250631e-01 -3.95963006e-02 ...  2.45913416e-01
    -2.47279927e-01 -1.00653827e-01]
   [ 1.71181411e-01  3.66680264e-01 -4.30471867e-01 ...  1.94276888e-02
    -9.25536752e-02  8.47520605e-02]
   [-1.86043978e-01  5.70162088e-02 -1.41905975e-02 ...  3.63956869e-01
     2.98252366e-02  3.12313765e-01]]

  [[-6.69003800e-02 -1.27164675e-02  4.12966646e-02 ...  1.01564370e-01
    -2.11553141e-01  1.36409149e-01]
   [ 7.51530081e-02  2.72309035e-01 -2.34885201e-01 ...  1.77489579e-01
    -6.56278990e-03  1.88830316e-01]
   [-3.76747064e-02  1.92646325e-01 -5.08652851e-02 ...  2.51470059e-01
    -2.15203147e-02 -6.78510591e-02]
   [-1.88296929e-01  1.12164877e-01 -1.28368586e-01 ...  3.49351287e-01
    -1.12050653e-01  1.62707835e-01]
   [-1.26855552e-01  3.13576043e-01 -9.25005600e-02 ...  2.87581354e-01
     1.35392293e-01 -1.91886991e-01]
   [-8.28763992e-02  1.46448717e-01 -3.01611185e-01 ...  1.93122253e-01
    -1.78623885e-01  1.99567348e-01]]

  [[-3.79837141e-03  4.44180816e-02 -2.44463369e-01 ...  1.68802142e-02
    -1.17470287e-01 -1.74920052e-01]
   [ 3.40493023e-02  1.10961117e-01 -2.50172853e-01 ...  1.55310526e-01
    -1.76477265e-02 -1.67630404e-01]
   [-1.40979355e-02  2.66257852e-01 -1.74662307e-01 ...  1.77953944e-01
    -1.16086483e-01  3.30441713e-01]
   [ 1.76326334e-01  8.66113678e-02 -2.50397950e-01 ...  2.70396054e-01
    -5.80611005e-02  2.47700393e-01]
   [-6.43848702e-02  2.28738040e-01  3.85332890e-02 ...  3.65306854e-01
     5.03486246e-02 -2.94473255e-03]
   [-1.24109410e-01  1.29013851e-01 -2.18406036e-01 ...  2.01584414e-01
    -1.93801478e-01 -5.03648929e-02]]

  [[-9.85700786e-02 -9.63932350e-02 -9.50359032e-02 ... -1.78659684e-03
    -1.53420299e-01 -5.85596979e-01]
   [-3.53042893e-02  1.38365060e-01 -1.70387495e-02 ...  1.49388850e-01
    -1.95494249e-01 -4.83689398e-01]
   [ 1.27186045e-01  3.16289186e-01 -6.80927634e-02 ...  4.55844626e-02
    -1.85391411e-01 -1.09550662e-01]
   [ 4.07251745e-01 -1.37796281e-02 -2.87926733e-01 ...  7.75279030e-02
    -5.89457005e-02 -1.16585838e-02]
   [ 1.67026624e-01  3.68782908e-01  8.19390491e-02 ...  2.95534402e-01
     7.70803317e-02  1.59824461e-01]
   [-6.14312962e-02  2.91264415e-01 -7.67974481e-02 ...  2.35013247e-01
    -1.58699378e-01 -3.08063328e-01]]]


 [[[ 1.33726880e-01 -6.19611561e-01  1.39085069e-01 ... -2.27207523e-02
    -7.16883168e-02 -2.69327670e-01]
   [-4.46913354e-02 -4.23851997e-01  2.31595442e-01 ...  1.20208576e-01
    -6.77629039e-02 -2.09599331e-01]
   [ 1.25757813e-01 -2.93681659e-02  1.78917661e-01 ... -1.46804690e-01
    -3.13347951e-02 -3.72220129e-01]
   [ 1.55797750e-01  7.04609528e-02 -2.49347202e-02 ... -1.53997019e-01
    -1.24533817e-01 -3.26824218e-01]
   [ 7.40983859e-02  5.27449965e-01  1.19594246e-01 ...  2.26268440e-01
    -9.12166759e-03  6.73294067e-02]
   [-4.52055447e-02 -1.05047308e-01  1.56914026e-01 ...  7.70098567e-02
    -1.26798134e-02 -9.96777788e-02]]

  [[-5.04971087e-01 -4.69517708e-01  3.14165473e-01 ...  5.29212207e-02
    -1.55405432e-01  2.94936508e-01]
   [-1.96742743e-01 -2.91501462e-01  3.30202609e-01 ...  2.50012487e-01
    -1.23716205e-01  1.07361287e-01]
   [ 3.93463373e-02 -1.84029445e-01  3.76560092e-02 ...  1.81451812e-01
     1.98429842e-02 -1.92795247e-01]
   [ 2.37363771e-01 -6.39412627e-02  9.23214108e-02 ...  4.95764352e-02
    -6.05988763e-02 -2.47100502e-01]
   [ 4.05518621e-01  4.40030605e-01 -3.98831546e-01 ...  5.71647465e-01
     5.97995184e-02 -1.33517325e-01]
   [-2.59338766e-01 -2.16308460e-01  1.99430600e-01 ...  1.95752412e-01
    -1.63581207e-01 -7.94510415e-05]]

  [[ 8.19107369e-02 -1.47199661e-01  1.72626570e-01 ... -1.55321047e-01
    -1.99292168e-01  3.19696188e-01]
   [-4.00535855e-03 -9.05475020e-02 -1.29453704e-01 ... -1.59142494e-01
    -8.68931636e-02  1.76412404e-01]
   [-4.08547819e-01 -1.10961199e-01 -6.26808554e-02 ...  2.99585372e-01
    -1.06570669e-01  1.79246455e-01]
   [-3.55099171e-01 -2.43756220e-01  1.56738982e-01 ...  1.83773696e-01
    -5.20645753e-02  9.66936946e-02]
   [-4.10313606e-01  4.94155198e-01 -5.99096060e-01 ...  4.66490209e-01
     9.61300284e-02 -1.12299807e-02]
   [-1.79241925e-01 -2.34708130e-01 -8.12575407e-03 ...  1.66680187e-01
    -1.54102936e-01  1.87325731e-01]]

  [[ 2.28285000e-01 -4.18474972e-01 -2.70608306e-01 ... -6.08088672e-01
     5.14982566e-02 -3.66845071e-01]
   [ 2.90771425e-01 -8.62838104e-02 -2.62530327e-01 ... -2.86743343e-01
     6.14951849e-02 -3.03240329e-01]
   [-1.09300174e-01 -5.35360202e-02 -3.88619490e-03 ...  7.77723566e-02
    -1.99032292e-01  2.27912426e-01]
   [ 2.42230341e-01 -7.85023421e-02 -1.09643480e-02 ...  2.04053894e-03
    -2.34530568e-01  5.54160774e-01]
   [-3.26570839e-01  5.44978619e-01 -3.65381151e-01 ...  3.30574840e-01
    -2.18778536e-01  3.97354931e-01]
   [-1.93831942e-03 -2.31622532e-01 -2.50918627e-01 ... -2.13079453e-01
    -1.58135921e-01  9.90208089e-02]]

  [[-2.87448704e-01 -2.34797984e-01 -3.00087363e-01 ...  1.99622707e-03
     7.04572797e-02 -5.70124269e-01]
   [ 9.27063152e-02 -1.47182480e-01 -3.68362516e-02 ... -3.94276269e-02
    -5.86950183e-02 -4.75722998e-01]
   [ 2.51837909e-01 -1.79567441e-01 -3.89005154e-01 ... -1.59772635e-01
     1.09134391e-02 -2.41271377e-01]
   [ 3.82468104e-01 -1.24617405e-01 -4.10351783e-01 ... -1.02673747e-01
    -2.10015684e-01  6.78172857e-02]
   [ 2.91209251e-01  3.38229686e-01 -2.34979823e-01 ...  1.11237526e-01
    -2.63813645e-01 -8.20780024e-02]
   [ 2.50784338e-01 -1.43195301e-01 -2.65982687e-01 ... -1.65203124e-01
     7.94143789e-03 -3.86208802e-01]]]


 [[[-4.44058836e-01 -1.09020725e-01 -2.60675639e-01 ...  1.19038619e-01
    -2.44678915e-01 -2.62317043e-02]
   [-2.19287917e-01 -4.18980211e-01  1.09088555e-01 ...  1.10581808e-01
    -1.36284247e-01 -2.13195667e-01]
   [ 3.93795460e-01 -2.83710837e-01 -4.00343202e-02 ... -1.04267053e-01
    -1.39755413e-01 -3.18520397e-01]
   [ 3.02857131e-01 -1.47871792e-01 -2.51239836e-01 ... -3.79758626e-01
    -6.65105581e-02 -4.21308845e-01]
   [ 2.73786247e-01 -1.83068693e-01  2.24639788e-01 ...  2.98014760e-01
     1.32570699e-01 -1.77486286e-01]
   [-1.98412165e-02 -3.81683737e-01  4.24676761e-02 ... -1.51908591e-01
    -2.39496559e-01 -1.71307802e-01]]

  [[-3.75207394e-01 -1.11281648e-01  2.03784898e-01 ... -1.56716540e-01
    -1.06723405e-01  3.98552448e-01]
   [-6.19807482e-01 -3.76597643e-01  3.80432695e-01 ...  1.44906387e-01
    -1.69265687e-01  3.49389791e-01]
   [-8.33110213e-02 -5.79445779e-01 -9.98123512e-02 ... -1.19545748e-02
    -2.11757585e-01 -2.58007556e-01]
   [ 2.41432413e-01 -4.39182818e-01  2.03373414e-02 ... -2.43828222e-01
    -1.06853366e-01 -4.96354878e-01]
   [-3.95164303e-02 -2.81701863e-01 -1.13557920e-01 ...  2.91950196e-01
    -6.49648160e-02 -1.18262611e-01]
   [-3.40320587e-01 -6.47334397e-01  3.21561515e-01 ...  5.78665361e-02
    -1.93998054e-01  1.71891838e-01]]

  [[ 1.02311477e-01 -1.13777801e-01  1.68444410e-01 ... -7.42875576e-01
     1.84180796e-01 -1.55197680e-01]
   [ 2.02512562e-01 -4.60269153e-01  1.46845311e-01 ... -4.91771519e-01
     9.54835266e-02  2.68009126e-01]
   [-6.96771741e-01 -6.04218006e-01  2.44898960e-01 ...  1.24095477e-01
    -2.95970500e-01  3.30832005e-01]
   [-6.52868867e-01 -6.16303444e-01  4.75474805e-01 ...  1.22851640e-01
    -1.84777141e-01  3.68361056e-01]
   [-1.02075267e+00 -2.80973017e-01 -2.42063954e-01 ...  2.94947594e-01
    -2.67343283e-01  2.23731652e-01]
   [-1.27159059e-01 -4.34118450e-01  1.79672644e-01 ... -1.20451041e-01
    -7.77602419e-02  1.73494741e-01]]

  [[ 2.63205707e-01  4.21821102e-02 -5.11363447e-01 ... -1.97133094e-01
     3.05837393e-01 -7.80412972e-01]
   [ 3.15589547e-01 -2.66382784e-01 -4.27818090e-01 ... -3.32729459e-01
     2.37606764e-01 -6.49988055e-01]
   [ 2.08432600e-01 -5.80443084e-01  1.67802826e-01 ... -2.96995908e-01
    -7.19430521e-02  2.85667658e-01]
   [ 3.23465705e-01 -4.52516705e-01  4.04927850e-01 ... -9.35916975e-02
    -1.54778406e-01  5.22526741e-01]
   [-1.30812779e-01 -3.83306891e-01 -1.86285481e-01 ... -1.03323840e-01
    -4.11556840e-01  3.73628795e-01]
   [ 2.61501044e-01 -5.37909567e-01 -2.20115796e-01 ... -3.41135293e-01
     1.20358683e-01 -1.67474255e-01]]

  [[-5.51369786e-01  8.32368508e-02 -1.76532537e-01 ...  1.58100538e-02
     1.46402285e-01  1.07766226e-01]
   [-2.32997984e-01  2.00377684e-02 -2.12897927e-01 ... -1.68992467e-02
     8.55789781e-02 -2.54620641e-01]
   [ 3.14974129e-01 -4.09542918e-01 -5.40735960e-01 ... -1.70203701e-01
     2.39304021e-01 -2.99128145e-01]
   [ 4.12195534e-01 -4.51110750e-01 -4.03711230e-01 ... -3.38475943e-01
     1.04200132e-01 -1.44304395e-01]
   [ 3.81720454e-01 -3.39121729e-01 -4.08078909e-01 ... -5.62269747e-01
    -6.84435070e-02 -3.29753041e-01]
   [ 6.99593872e-02 -2.10892037e-01 -2.02626735e-01 ... -1.05029672e-01
     1.41280815e-01 -3.85059714e-01]]]


 [[[-4.02806550e-01  1.50047272e-01  1.88089740e-02 ... -2.17549384e-01
     2.10947543e-01  1.83298856e-01]
   [-3.19873482e-01 -2.05110088e-01 -1.89107820e-01 ... -1.33359164e-01
    -1.96076576e-02 -2.12110113e-02]
   [ 1.48802862e-01 -7.34731182e-02 -2.88532883e-01 ... -2.79975176e-01
    -3.12660694e-01 -1.16294913e-03]
   [ 2.59383738e-01  6.00773357e-02 -3.03581476e-01 ... -1.85716018e-01
    -7.54405037e-02  2.50611842e-01]
   [ 2.54237771e-01 -3.73311155e-02 -1.42079994e-01 ...  2.15972275e-01
    -4.04209346e-01  2.05868687e-02]
   [-1.53002083e-01 -2.87390590e-01 -3.25505018e-01 ... -9.43780169e-02
    -2.31287286e-01 -1.57866433e-01]]

  [[-3.08279663e-01  1.63151532e-01  4.07190204e-01 ... -1.45556435e-01
     2.96245456e-01  7.57649094e-02]
   [-2.59545207e-01 -8.24212357e-02  4.61426198e-01 ... -2.78037786e-01
     5.68116121e-02  1.93589807e-01]
   [-2.89731145e-01 -2.48757139e-01 -1.30373180e-01 ... -1.15508512e-02
    -1.11573137e-01 -2.02251568e-01]
   [-4.21324223e-02 -3.08058500e-01 -3.75723749e-01 ...  1.28849531e-02
    -2.22117200e-01 -1.64406642e-01]
   [-5.39234340e-01 -3.98280442e-01 -1.58390924e-01 ...  5.11369780e-02
    -5.13160348e-01 -3.74740995e-02]
   [-2.22232521e-01 -8.66311193e-02  1.81568623e-01 ... -3.31981033e-01
     2.22667009e-02  2.00530350e-01]]

  [[ 2.01376364e-01  2.53300339e-01  2.28014532e-02 ... -2.31560662e-01
     2.76787639e-01 -7.44048953e-02]
   [ 1.57497078e-01  4.93933819e-02  1.58642322e-01 ... -2.90923864e-01
     2.93546945e-01 -5.49970083e-02]
   [-4.15418983e-01  6.27331436e-02  3.67093652e-01 ... -2.47144759e-01
    -4.55308147e-03  2.90802628e-01]
   [-6.59546405e-02 -2.07967803e-01  5.22163510e-01 ...  1.08466953e-01
    -1.65435046e-01  4.40928966e-01]
   [-4.10765886e-01 -4.24876094e-01  3.07100803e-01 ... -8.30419362e-02
    -3.06932390e-01  3.35308701e-01]
   [ 5.87438792e-02 -4.22569318e-03  3.09338599e-01 ... -2.50873327e-01
     2.21549779e-01 -9.92457122e-02]]

  [[ 9.62408632e-02  1.80203393e-01 -5.90155363e-01 ... -5.26668578e-02
     4.45072174e-01 -3.15161884e-01]
   [ 2.10147664e-01  8.78091529e-02 -4.87441123e-01 ... -1.26480624e-01
     2.12354451e-01 -5.14626741e-01]
   [ 2.31381759e-01 -1.95363779e-02  2.18666255e-01 ... -2.38426194e-01
     2.48663172e-01  2.37293355e-02]
   [ 1.88569039e-01 -1.96682140e-01  4.73703593e-01 ... -4.18693513e-01
     3.23433504e-02  2.65500933e-01]
   [-3.24474536e-02 -2.53961563e-01  1.28586441e-01 ... -3.07344019e-01
     1.46229982e-01  2.39208527e-02]
   [ 3.32777500e-01  4.88065295e-02 -8.08656737e-02 ... -2.58154929e-01
     1.84625477e-01 -3.15992802e-01]]

  [[-1.70146555e-01  2.00741783e-01  5.13941497e-02 ... -1.75728321e-01
    -1.71954911e-02  4.04531918e-02]
   [-1.51840135e-01  1.79036945e-01 -5.27487881e-02 ...  7.46113807e-02
     1.86850429e-02 -1.41272303e-02]
   [ 1.64253876e-01 -2.62860712e-02 -3.78294259e-01 ... -8.31498764e-03
     2.29109719e-01 -2.70549476e-01]
   [ 2.96668440e-01 -1.68997459e-02 -5.01213729e-01 ... -1.94995940e-01
     1.02242991e-01 -4.21850234e-01]
   [ 9.94345769e-02 -1.52737409e-01 -5.60655296e-01 ... -9.67856199e-02
     2.53398478e-01 -5.25065422e-01]
   [-6.46318570e-02 -2.38645244e-02 -7.61729926e-02 ... -1.22304589e-01
     2.73469150e-01 -8.37521553e-02]]]


 [[[-1.53516933e-01  6.49103522e-02  1.30856782e-01 ...  1.55103868e-02
     4.05654967e-01 -1.50334552e-01]
   [-2.96438128e-01  1.52941957e-01 -6.33725896e-02 ... -1.01718411e-01
     2.40170226e-01 -1.12975463e-01]
   [-2.35072628e-01 -7.32434588e-03 -1.03634506e-01 ... -4.06113535e-01
     5.61179854e-02  4.23441119e-02]
   [ 4.51908000e-02  3.26667167e-02 -1.91330090e-01 ... -3.67695093e-01
    -1.36521325e-01  5.36409795e-01]
   [-4.45324332e-01  8.98108725e-03 -6.61827549e-02 ... -1.42526582e-01
    -3.59098673e-01  1.63261160e-01]
   [-3.24758917e-01  1.73434913e-01 -2.52557456e-01 ... -2.56592661e-01
     9.43121240e-02 -5.44470623e-02]]

  [[-2.12018359e-02  3.47290486e-01  3.14031988e-01 ... -4.90596937e-03
     3.93610388e-01  2.08300501e-01]
   [-3.08796734e-01  1.68853700e-01  2.42419094e-01 ... -1.88048109e-01
     2.01345965e-01 -8.29449892e-02]
   [-3.41205925e-01 -1.24270981e-03 -1.96233988e-01 ... -2.43304655e-01
     2.67490834e-01 -2.40869671e-01]
   [ 4.23970744e-02 -9.18675885e-02 -3.02804738e-01 ... -2.12510929e-01
     1.96843460e-01 -6.94564283e-02]
   [-4.13358718e-01 -1.72580034e-01  1.11863963e-01 ... -2.85671949e-01
    -9.00133550e-02 -2.30902448e-01]
   [-3.62059176e-01  1.52709261e-01  2.84052879e-01 ... -2.24603191e-01
     3.72497320e-01  1.64088100e-01]]

  [[-4.53759357e-02  1.86354160e-01 -1.92823827e-01 ... -4.65854406e-01
     1.48358643e-01  2.81121850e-01]
   [ 7.82852818e-04  3.02669019e-01  6.64663911e-02 ... -1.96120873e-01
     3.24971080e-01 -8.76131002e-03]
   [-3.49521786e-01  3.08798164e-01  3.50392520e-01 ... -6.31524250e-03
     2.82113791e-01 -1.49695590e-01]
   [ 9.52440351e-02  9.15078372e-02  4.28470820e-01 ... -1.13448873e-01
     1.96937904e-01  1.75868962e-02]
   [-1.47519171e-01  5.21481819e-02  4.74043489e-01 ... -4.55415919e-02
     1.75487921e-01 -5.05348086e-01]
   [ 2.24272162e-02  3.02841336e-01  1.19218700e-01 ... -1.52780622e-01
     3.30590248e-01 -9.97329727e-02]]

  [[-2.46076077e-01 -5.59598021e-02 -4.15342510e-01 ... -4.96461928e-01
     2.71097809e-01  6.37155250e-02]
   [-5.91609180e-02  1.02157786e-01 -4.32517409e-01 ... -1.84514210e-01
     2.84989715e-01 -1.49206445e-01]
   [ 1.81606039e-01  1.76513329e-01  4.69279960e-02 ... -2.86456376e-01
     2.76610821e-01 -2.44375035e-01]
   [ 1.63011596e-01  8.30509737e-02  3.20136487e-01 ... -1.21678360e-01
     1.55850574e-01 -7.73277804e-02]
   [ 1.72393233e-01  1.01112716e-01  3.10849369e-01 ...  1.14716887e-01
     2.45491922e-01 -7.05435157e-01]
   [ 3.87381092e-02  2.36628100e-01 -2.02036053e-01 ... -2.23528728e-01
     3.64407897e-01 -2.02671513e-01]]

  [[-1.90385953e-01 -1.34746358e-01 -3.17937019e-03 ... -5.49748302e-01
    -8.14594030e-02  1.54128477e-01]
   [ 5.68629727e-02 -2.08068173e-02  1.18841799e-02 ... -3.16432685e-01
    -5.28506469e-03 -1.16544530e-01]
   [ 1.64737374e-01  5.13650058e-03 -2.54790008e-01 ... -3.27648580e-01
     2.39370108e-01 -1.67165831e-01]
   [ 3.25320005e-01  1.20689794e-01 -3.27208042e-01 ... -6.91351062e-03
     3.40699017e-01 -1.25239059e-01]
   [ 2.54742682e-01  7.99372643e-02 -4.64930296e-01 ...  1.97705142e-02
     4.20932382e-01 -5.34493625e-01]
   [-1.34342626e-01  1.41473725e-01 -7.81826824e-02 ... -1.14375696e-01
     2.02675655e-01 -1.28716365e-01]]]]
le_net/conv2d_1/bias:0
(16,)
[ 0.05985034  0.07827028  0.12613569 -0.19406569  0.09394345  0.20734805
 -0.03124142 -0.1982267   0.13339704  0.0108907  -0.11253402 -0.13880944
 -0.06772249  0.11675864 -0.13336715  0.12045173]
le_net/dense/kernel:0
(256, 120)
[[-1.04267940e-01 -5.37408367e-02  1.50498971e-01 ... -1.07321933e-01
  -1.03482515e-01 -1.58473447e-01]
 [-7.93469623e-02  1.57724634e-01  2.58082360e-01 ...  4.09666672e-02
  -1.10067338e-01 -1.76424906e-02]
 [ 2.71018073e-02 -3.28879282e-02 -3.14470917e-01 ...  3.04953337e-01
  -7.70529360e-02 -9.38204583e-03]
 ...
 [ 7.21730217e-02 -1.98345690e-04  3.57190818e-02 ...  2.29781628e-01
   1.23933986e-01  1.82571903e-01]
 [-3.08282763e-01  1.85671169e-02  3.03091437e-01 ... -1.21878013e-01
  -5.24556041e-02 -7.01190382e-02]
 [-2.19095886e-01  1.28168613e-01  1.15425125e-01 ... -1.08046860e-01
   1.49229512e-01  2.94073336e-02]]
le_net/dense/bias:0
(120,)
[-0.11843595  0.09692074  0.1565709  -0.01124592 -0.054311   -0.09049184
  0.04727221  0.00123193  0.03192089 -0.06380466  0.05566144  0.04685754
 -0.00076005 -0.07666335  0.06290438 -0.07695472  0.04504349  0.02614888
 -0.02781701  0.05651638  0.09078959 -0.05835867  0.05733858 -0.05927623
 -0.07205296 -0.0651188  -0.01516742  0.01267979  0.02977295  0.06465687
 -0.05324749 -0.03210449 -0.06035344  0.07210546 -0.04620061  0.00360968
  0.04459669 -0.0179229   0.00320201 -0.08046187 -0.04319573 -0.03530591
  0.06221131 -0.02095895  0.04930948  0.05265471 -0.06614941  0.10877693
  0.12677902 -0.09532397 -0.01844008 -0.04196673  0.02723302 -0.07885262
  0.04254548  0.00716511 -0.05430502 -0.00300556  0.05350276  0.0053794
 -0.11426753 -0.04372861  0.07225428 -0.13906823 -0.12231236  0.01742604
  0.06960303  0.06783421  0.08245672  0.00708959 -0.02045094  0.10075869
  0.07911716  0.03366055  0.06718326  0.02847827  0.09213672  0.07311552
 -0.05692532 -0.03063066  0.03823128 -0.04008837 -0.01972127  0.0097213
  0.01068141  0.1660127   0.03022823 -0.14594212 -0.07326718  0.04774685
 -0.06366714  0.05669467 -0.10816061  0.10983994  0.01462348 -0.01203256
  0.08898074 -0.09038366  0.04730064 -0.02104774 -0.06650696  0.01682689
 -0.11806903 -0.05359228 -0.0383935  -0.02579759  0.00388565  0.02182641
  0.06102814 -0.06090607  0.00987698 -0.12421617 -0.11053555 -0.10213366
  0.04301722 -0.03921113 -0.01895336  0.00708868 -0.00320016 -0.02073564]
le_net/dense_1/kernel:0
(120, 84)
[[ 0.02501308  0.06274917 -0.20186356 ...  0.01919082 -0.06655588
  -0.18153879]
 [ 0.44009876 -0.23348129  0.12424804 ...  0.15863022  0.20034151
  -0.11269432]
 [-0.1557985  -0.3450695   0.05830085 ... -0.3601894   0.06445326
  -0.01896636]
 ...
 [-0.28759608 -0.34431162 -0.03624849 ...  0.22244991 -0.3691834
   0.22401324]
 [-0.0305879   0.22759654  0.09540721 ...  0.0884671  -0.24616747
  -0.14129972]
 [-0.01579905  0.01678128 -0.08443111 ...  0.03907461 -0.17039621
   0.1662372 ]]
le_net/dense_1/bias:0
(84,)
[ 0.03071046 -0.04599576 -0.00762453 -0.0131269   0.02034695  0.00683804
  0.01408433  0.01256033  0.00471467 -0.0346105  -0.01755014  0.02964259
 -0.00437805 -0.01533482 -0.0007472  -0.02124069 -0.00295561  0.01181803
 -0.00047954 -0.00896867 -0.01664305  0.02443703  0.02836646 -0.00786652
 -0.01591652 -0.02744382  0.01274717 -0.02630739  0.03155676 -0.0184621
 -0.01143033  0.04494178 -0.01419456 -0.00205469 -0.03282092 -0.01901978
  0.00231999  0.01756014  0.02622772  0.01901225  0.00083274 -0.0213591
  0.00895071  0.04212373  0.02544134  0.003729   -0.01326002 -0.00512018
  0.05097032 -0.01381883 -0.0146242  -0.00593328  0.03440636  0.00221508
  0.02039021  0.01520167  0.00162633  0.04383754  0.00217977 -0.01430848
 -0.05070308  0.01853454  0.00349714 -0.04887222  0.01732529 -0.02106447
 -0.02083388 -0.00021712 -0.01146346 -0.01602089  0.00272608  0.01028019
 -0.04116187  0.0216045   0.02158679  0.00478657  0.02452062  0.01510693
  0.0168015   0.03220014  0.01630233  0.01435339 -0.02280944 -0.00563555]
le_net/dense_2/kernel:0
(84, 10)
[[ 0.4067382  -0.5132163  -0.35456377 -0.48745346 -0.2420113  -0.43854776
   0.41600132  0.16203003  0.35295662  0.36522678]
 [-0.5796407  -0.14723377 -0.2051481   0.47751006 -0.45676154 -0.10147665
  -0.48841408  0.3236712  -0.41083184  0.5500057 ]
 [ 0.53749037 -0.6278234   0.4079233  -0.4103622  -0.35934034 -0.25773472
  -0.19344482  0.16088909  0.394076   -0.31344515]
 [-0.14974883 -0.34344706 -0.12099762 -0.4800864   0.59848815 -0.26712582
   0.31661412 -0.38569924  0.48837426 -0.3845616 ]
 [ 0.5600036  -0.43201426  0.52406067  0.4273659  -0.1352809  -0.24600028
   0.4060732  -0.52354723 -0.28334242  0.13136744]
 [-0.47655123  0.15901819 -0.44998744 -0.30599537 -0.36494195  0.16275196
   0.294331   -0.7863662   0.5100001   0.64006406]
 [-0.5470878   0.513162   -0.11057498  0.20604645  0.331079   -0.45980793
   0.08123326  0.21788612 -0.48711765 -0.45807502]
 [ 0.06115197 -0.44468427 -0.80922693 -0.4068505   0.35933903  0.30030432
   0.45225745  0.00351205 -0.25647226  0.30374897]
 [ 0.19790454  0.5440582  -0.39978206  0.29583985  0.28760472  0.20244935
  -0.63931984  0.40467697 -0.7491699   0.40097   ]
 [-0.77453256 -0.12699844 -0.6276039  -0.04376478  0.15729356  0.48581013
  -0.47043717  0.25517008  0.09404612  0.25656044]
 [ 0.03405974 -0.50832105 -0.5880329   0.33413988  0.17102161  0.05017943
  -0.6775716   0.17905666  0.2005185   0.34302658]
 [-0.47662404  0.48264375 -0.1864172  -0.4868058   0.03613513 -0.13314678
   0.28662628  0.6209944   0.06248373 -0.18211633]
 [ 0.3172415  -0.22302096 -0.11271336 -0.44241288 -0.40835863  0.25746608
  -0.10797521  0.3244005   0.43462247  0.08639567]
 [-0.40262672 -0.0729259  -0.48085907  0.5956832  -0.6906129   0.19609651
   0.11007429 -0.6177012   0.2693037  -0.1476445 ]
 [ 0.2303304  -0.42508298  0.24098659  0.42071736  0.5241626  -0.42226875
   0.25650078 -0.50132495 -0.2768472   0.4520114 ]
 [-0.5487571   0.36821187  0.30674425  0.2568727  -0.02444245 -0.688071
  -0.4426504  -0.09717501  0.27677765  0.0039161 ]
 [ 0.2695229  -0.46448123  0.16915728  0.34413338 -0.539095   -0.01491007
   0.12113155 -0.6922481   0.55369824 -0.19663665]
 [-0.15975067  0.38750967 -0.135102   -0.21805075  0.7817724  -0.41672483
   0.5472535  -0.24782926 -0.41023982 -0.521691  ]
 [-0.48407778  0.34967554 -0.03317562  0.34104395  0.07210389  0.2355429
   0.06779217 -0.3371255   0.14641172 -0.47906566]
 [-0.43721274  0.20231448  0.15015733  0.38140398  0.02326608 -0.54785424
  -0.12245247  0.4738051   0.3876146  -0.6275786 ]
 [-0.4057213   0.01059077  0.31638613 -0.46825683  0.10678693  0.07304192
   0.04081414 -0.2182074   0.3740589  -0.5116558 ]
 [ 0.5532726   0.46554738  0.19750814 -0.5152629   0.18034689 -0.32038984
  -0.76515055  0.00094242 -0.20173801  0.44625735]
 [ 0.08697769  0.56482977  0.5549659  -0.4821331  -0.27337307 -0.20072688
   0.51061016 -0.05586893 -0.59814966 -0.43408352]
 [-0.5262895   0.48562115  0.30307576  0.25083664 -0.45938295 -0.5205331
  -0.6489715   0.16533597  0.40529674 -0.5709057 ]
 [ 0.31868568 -0.58530074 -0.2588301   0.51692945 -0.20561422  0.40210584
  -0.4042519   0.25427485 -0.7519927   0.535487  ]
 [ 0.04906028 -0.4166308   0.18493022  0.26610515 -0.5585112   0.46429497
  -0.55202115  0.398426    0.4102906  -0.6094909 ]
 [ 0.50336635 -0.27276203 -0.42839423 -0.1894428  -0.2875212  -0.32254717
   0.7802701  -0.07709139 -0.30375966  0.059508  ]
 [-0.39275977 -0.16026595 -0.2009086  -0.03972714  0.4340194  -0.45330384
  -0.5896799   0.5119627   0.07229374  0.15750796]
 [ 0.4452354  -0.08017384  0.25862017  0.17553216 -0.2671684   0.3563685
   0.3782291  -0.31605786 -0.44404235 -0.35100248]
 [ 0.00573042 -0.54431456 -0.358852    0.44998866 -0.02372367 -0.11669734
   0.09358221 -0.64164287  0.09349298  0.18394232]
 [-0.6085447   0.31900898  0.02345989 -0.06663793  0.13279878 -0.3535163
  -0.2975358   0.33891115  0.16631645  0.14764944]
 [ 0.4296619   0.21659544  0.07874247 -0.5252692  -0.74901587  0.66477656
  -0.0398853  -0.4383736  -0.05813904 -0.12559196]
 [-0.6722702   0.3562101  -0.3639894   0.3100153  -0.5050235   0.37814027
   0.10821571  0.14740138  0.16640162  0.45372748]
 [-0.12137957  0.46768734 -0.33501977 -0.39578965 -0.08209782  0.03957138
  -0.01130247  0.03463253  0.51691604  0.09190675]
 [-0.42717993  0.4034522  -0.54708445  0.4503529  -0.5083203   0.51979303
  -0.35951775 -0.14906292  0.22238433 -0.28248656]
 [ 0.00280486 -0.34429163  0.3981237   0.0225468  -0.2721333   0.32606044
  -0.6009163   0.3088445  -0.08597509  0.04428656]
 [-0.11092512  0.5324692  -0.29755986 -0.27929527 -0.13871735 -0.2089252
  -0.19782545  0.77037877 -0.60126096 -0.10534153]
 [-0.56169975  0.28107122 -0.5006909  -0.3306614   0.19229895  0.22540784
   0.27050695 -0.32386455 -0.17741254 -0.4472328 ]
 [ 0.21937753  0.49524364  0.15808073  0.23392914  0.14652617 -0.01410315
   0.15983877  0.38740525 -0.4887284  -0.62803656]
 [ 0.21532536  0.28234556  0.38867027 -0.59446555  0.20694065 -0.7277776
  -0.16572893  0.0222501   0.30366436  0.32930782]
 [ 0.25613046 -0.15930621  0.1688331   0.28651702 -0.4485489  -0.12009063
   0.2866669  -0.45310438  0.08616622 -0.5385434 ]
 [ 0.18451755 -0.46511805 -0.28058183 -0.15263693 -0.01212329  0.29508153
  -0.4271451  -0.05837284 -0.79162276  0.5769364 ]
 [ 0.09501343 -0.6573621  -0.51975167  0.34393546  0.44635716  0.2844705
   0.57284176  0.22890887 -0.53360176 -0.2439306 ]
 [ 0.40643314  0.42605692  0.14286187 -0.623966   -0.51912856  0.4237157
   0.48519742 -0.6149909   0.2175446  -0.42916784]
 [ 0.56756806 -0.5351657  -0.4738041  -0.74602324 -0.31850746  0.42327854
   0.5304793  -0.06102846  0.33812466 -0.58331573]
 [-0.35695988  0.3687735  -0.5670184  -0.45462096  0.26731783  0.23641457
  -0.02574867 -0.44279552  0.01124418  0.15997224]
 [-0.53269047 -0.14044085  0.39526045  0.49222758  0.18170735 -0.6854554
  -0.42250186  0.26221946 -0.49556875  0.22818145]
 [ 0.19763564 -0.56895405  0.37879175  0.33059913 -0.16753638 -0.3129165
   0.3344704  -0.8950375   0.10928936  0.47033018]
 [ 0.46897957 -0.08066747  0.6426136  -0.6626751  -0.37396774 -0.20869046
   0.5944751  -0.47331762 -0.04930472 -0.33764115]
 [ 0.31925848 -0.41193482 -0.11934512 -0.50636095  0.4463873   0.08301767
  -0.3213227   0.2902301  -0.25160247  0.50079703]
 [-0.5366552   0.22206353  0.08700845  0.2735373   0.11820312 -0.15696527
   0.20543583 -0.43592003 -0.29647383 -0.48293492]
 [-0.5648364   0.28043035  0.44662726 -0.08658618 -0.7271072   0.3117729
  -0.8090398   0.23093121  0.3941763   0.56268936]
 [ 0.21051694  0.4084668  -0.67425966  0.28763294  0.1449897   0.30768868
   0.17957553 -0.83946544  0.2787625   0.30766097]
 [ 0.4232574  -0.5332763  -0.13288628 -0.01367058 -0.40500078  0.58227664
   0.41164726 -0.39097115 -0.39088333 -0.31743452]
 [-0.72490424  0.33869198  0.01578343 -0.23086    -0.2725962   0.31909317
   0.25875404 -0.65455675  0.16027915  0.38497847]
 [ 0.4387139  -0.6633905   0.56177706 -0.35193437  0.3536915  -0.8158886
  -0.29845962  0.24488857  0.01202324  0.04645456]
 [-0.25112182 -0.36656404  0.22217393 -0.47203055  0.4401131  -0.57483006
   0.11233625  0.03586495 -0.12305721  0.22876234]
 [ 0.15979387 -0.6292688   0.55439526 -0.5673499   0.14007065 -0.48157007
   0.26767015 -0.49502093 -0.5108018   0.25630406]
 [ 0.02348546  0.34906217 -0.04621477  0.41938594 -0.35932976  0.10043121
  -0.15998185 -0.17005287 -0.51401633 -0.10144854]
 [ 0.13761829 -0.18257481 -0.40545517  0.27960044  0.27508602  0.1836228
  -0.7585845   0.3880691  -0.15779969 -0.02413008]
 [-0.14415573 -0.35473606  0.45531806 -0.07302538  0.36416152  0.05817114
  -0.5061046   0.21928424 -0.10174166  0.29684582]
 [ 0.06842986  0.39569142  0.4245119   0.08770148 -0.73728424  0.47084185
  -0.4055852   0.00827948 -0.301633   -0.5583996 ]
 [ 0.2664815  -0.4729109   0.59067196  0.41165096 -0.21402952 -0.72709227
  -0.8823133   0.19284068  0.14767532 -0.05366771]
 [-0.35845703 -0.5002565  -0.30178016  0.0666795   0.02500079  0.30129695
  -0.5117198   0.19726004  0.27198476  0.27455735]
 [ 0.08012152 -0.54274344 -0.01803988  0.32513142 -0.70499027  0.31865144
   0.09297319  0.47159892  0.42770594 -0.47473428]
 [-0.27480835 -0.00953618  0.0468026   0.21817459  0.44407603  0.02660841
   0.13313149 -0.04761231  0.2705189  -0.5618944 ]
 [ 0.16787212 -0.33207    -0.27884036  0.4262336   0.26070404  0.00648612
  -0.24318571 -0.56156963  0.10820927  0.314467  ]
 [-0.08445986  0.3431808  -0.3065095   0.21233436 -0.02347952  0.07095968
  -0.30896232  0.6160992  -0.53990734 -0.38044375]
 [ 0.42933843 -0.22759685 -0.4977753   0.3326423   0.36861932 -0.26636115
  -0.5577748   0.3814967   0.41291255  0.04590558]
 [ 0.25425607 -0.5157124  -0.18841559 -0.4107319   0.08267165 -0.2445208
  -0.11412405  0.30851895  0.340109    0.3943779 ]
 [ 0.07117229  0.61189973  0.5245405  -0.36460632  0.08403615 -0.59385157
  -0.3211556   0.05388667 -0.22990566  0.13533464]
 [-0.08825219  0.4994962   0.09844341 -0.37844205 -0.5071323   0.05338084
   0.12397337  0.5536946  -0.26931113  0.13384454]
 [-0.37686062 -0.16210938  0.17603602 -0.17535496 -0.02680895 -0.54149055
  -0.6698186   0.09825458  0.23936404 -0.00808217]
 [ 0.39330122 -0.3239716   0.22714415 -0.26875675  0.19014478  0.213588
   0.25092268 -0.23320629 -0.5984117   0.1365015 ]
 [ 0.10026281  0.47008812  0.01563849  0.19420415 -0.50512856  0.29982665
  -0.3501936   0.530321   -0.0401203  -0.6487357 ]
 [-0.23932934  0.03773182 -0.55652714 -0.459043    0.08109433  0.52482176
   0.46382025 -0.17555587 -0.40601906  0.5465853 ]
 [-0.5614371   0.34796995  0.24575542 -0.17187522  0.5119801   0.07321704
   0.16215906  0.082747   -0.40655616 -0.48119134]
 [ 0.2381978  -0.5628591  -0.31653214  0.44131786 -0.53978163  0.5043729
   0.03162848  0.33497304 -0.20508517  0.23045208]
 [ 0.38280115  0.2230336   0.27218708 -0.07764807  0.4173022  -0.6197857
   0.2811244  -0.7501078   0.48330238 -0.38037372]
 [-0.35345373  0.40148336  0.18338722 -0.4828485   0.11680155  0.19725953
   0.25223047 -0.5302931   0.0048682  -0.32963964]
 [ 0.41546983 -0.32706967 -0.65311295 -0.29975834 -0.10761561  0.12579684
   0.4110148  -0.36283845  0.3137254   0.3634147 ]
 [ 0.16042091 -0.23389773  0.18300499 -0.52668947  0.64048266 -0.631878
  -0.03847652  0.42315564 -0.33809045 -0.41059765]
 [-0.55390495  0.16658358  0.42505583  0.3936791  -0.5652551  -0.63274807
  -0.14564091 -0.45288926  0.29240087  0.272338  ]
 [-0.35801575 -0.11047383 -0.56987524 -0.3107272   0.5332854   0.3213571
   0.60158014 -0.42301667  0.2546054   0.08852009]]
le_net/dense_2/bias:0
(10,)
[-0.07017963  0.05169211 -0.00834676 -0.00944255  0.03045226 -0.01727863
 -0.03407488  0.03783389 -0.00342017  0.03035247]
